
#include "parameter.h"

float k1[1*6][5*5] = {
		-1.311610, -0.697226, -0.264508, -0.006987, -0.924185,
		0.210683, 0.862258, 1.116380, 1.006691, -0.213187,
		1.245152, 1.390786, 1.626039, 1.440297, 0.926423,
		0.802057, 1.268895, 1.048424, 1.074763, 0.476389,
		-0.210140, 0.007807, -0.194371, -0.135370, -1.167757,
		1.032259, 0.535508, 0.283635, 0.622267, 0.956358,
		-0.360529, -0.623420, -0.559458, -0.167489, 0.689733,
		-0.992116, -1.373979, -0.998138, -0.245007, 0.108064,
		-0.965912, -0.891343, -0.879570, -0.318200, -0.050830,
		-0.224060, -0.136384, 0.233453, 0.587545, 0.327641,
		-1.870033, -1.283783, -1.023858, -0.674581, -0.889385,
		-0.874325, 0.219814, 0.851967, 0.742353, -0.226011,
		-0.085180, 1.240775, 1.402483, 1.220441, 0.583693,
		0.058850, 1.186529, 1.409298, 1.397708, 1.189737,
		-0.865363, 0.482189, 0.881201, 0.785157, 0.258474,
		1.075675, 0.946290, 0.753194, -0.102608, -0.462006,
		1.375966, 1.452062, 1.240159, 0.447147, -0.351017,
		1.015795, 1.195561, 0.947664, 0.231705, -0.591593,
		0.094005, 0.309255, -0.126740, -0.965203, -0.690547,
		-1.275189, -1.368104, -1.212654, -0.930921, 0.141637,
		1.997088, 1.010186, 0.339076, -0.052080, 0.509098,
		0.409514, -0.581877, -1.048246, -0.877034, 0.082602,
		-0.365118, -1.071359, -1.311108, -1.404027, -0.343206,
		-0.273236, -1.195908, -1.415018, -1.354119, -1.273796,
		0.399219, -0.548749, -0.719622, -0.802079, 0.001634,
		1.770382, 1.225682, 1.131207, 0.977792, 0.467717,
		1.381622, 0.725505, 0.137805, -0.339473, -0.248959,
		0.812663, -0.133457, -0.706039, -0.792818, -0.613926,
		0.092273, -0.447754, -1.025520, -1.171570, -0.926930,
		0.047393, -0.558487, -1.128131, -1.560841, -1.037311,
};
float b1[6] = {
		-1.536556, 1.319887, -1.241743, -0.745660, 1.525414,
		-1.712889,
};
float k2[6*12][5*5] = {
		-0.032636, -0.201085, -0.204399, -0.306091, -0.145800,
		-0.098400, -0.119800, -0.385785, -0.170308, 0.077074,
		-0.113434, -0.346142, -0.357748, 0.051484, 0.176133,
		-0.203029, -0.409110, -0.138357, 0.219715, 0.071617,
		-0.337922, -0.117971, 0.174519, 0.260714, -0.094481,
		-0.105897, 0.458779, 0.220221, -0.195464, -0.583859,
		0.374875, 0.853340, 0.675944, 0.350295, -0.005669,
		0.581396, 0.755006, 0.588899, 0.323606, 0.328555,
		0.323830, 0.218080, -0.131548, -0.076640, -0.264367,
		-0.358099, -0.348494, -0.253203, -0.171609, -0.173442,
		-0.437487, -0.334162, -0.583092, -0.411024, -0.322439,
		-0.086014, -0.213525, -0.004673, 0.005331, -0.263243,
		0.563455, 0.517218, 0.153238, 0.011386, -0.173926,
		-0.190155, -0.138632, -0.064107, -0.198040, -0.093357,
		-0.026435, 0.414741, 0.437167, 0.270647, 0.382959,
		-0.243390, -0.186194, -0.063508, 0.108457, -0.150987,
		-0.473528, -0.863800, -1.020424, -0.932250, -0.828241,
		-0.099231, -0.108012, -0.081522, -0.255369, -0.185218,
		0.290682, 0.525023, 0.529315, 0.489202, 0.153584,
		-0.335908, -0.195385, -0.155705, 0.008873, 0.011556,
		-0.507117, -0.858929, -0.954022, -0.633465, -0.542993,
		0.213274, -0.255277, -0.804234, -0.752127, -0.599481,
		0.513552, 0.678606, 0.480399, 0.214688, 0.041656,
		0.029007, 0.146387, 0.251063, 0.196030, 0.116853,
		-0.199206, -0.394548, -0.465043, -0.077093, -0.039168,
		0.002655, 0.408485, -0.050257, -0.413041, -0.465159,
		0.456731, 0.644604, -0.296626, -0.501239, -0.203961,
		0.664274, 0.601891, 0.181889, -0.235399, -0.307894,
		0.169032, 0.461355, 0.390050, 0.049586, -0.495380,
		-0.216634, -0.058134, 0.164929, 0.072981, -0.256076,
		-0.216796, -0.298882, -0.314965, -0.303062, -0.330011,
		0.060440, 0.168945, 0.372280, 0.368252, 0.530676,
		0.058511, 0.497685, 0.523569, 0.426529, 0.139046,
		-0.251834, -0.098819, -0.328891, -0.257166, -0.091457,
		-0.181490, -0.290773, -0.399474, -0.360106, 0.140629,
		-0.414467, -0.231038, -0.098852, 0.017423, 0.002277,
		-0.219519, -0.395645, -0.328913, 0.233701, 0.068947,
		-0.309151, -0.317809, 0.140990, 0.697270, -0.032686,
		-0.143695, 0.321888, 0.759403, 0.017816, -0.499142,
		0.308993, 0.455944, 0.051612, -0.258399, -0.364236,
		-0.255732, -0.410466, -0.284674, 0.105479, 0.106254,
		0.246285, 0.214131, 0.241824, 0.261452, 0.195190,
		0.632024, 0.303958, -0.164729, -0.145995, -0.252986,
		0.408894, -0.439251, -0.392711, -0.430520, -0.047238,
		0.014100, -0.574391, -0.549700, -0.356412, 0.235675,
		-0.462227, -0.253453, 0.105111, 0.227484, 0.534049,
		-0.525514, -0.452338, -0.601560, -0.462143, -0.145171,
		-0.332626, -0.664549, -0.759212, -0.175757, -0.124939,
		0.005150, -0.235142, -0.331400, -0.284447, -0.109875,
		0.264555, -0.027320, -0.215058, -0.338428, -0.094006,
		-0.769591, -0.416260, -0.684364, -0.792651, -0.454254,
		-0.917935, -0.837461, -0.907670, -0.780754, -0.192565,
		0.119755, -0.172048, 0.040289, 0.055724, 0.092607,
		0.357273, 0.354304, 0.370825, 0.451187, 0.148534,
		0.044161, -0.151064, -0.120018, 0.172132, 0.191722,
		-0.385253, -0.401358, -0.270299, -0.172140, -0.414092,
		-0.515311, -0.165863, 0.393862, 0.292046, -0.708061,
		0.115116, 0.338406, 0.573787, 0.110850, -0.563586,
		0.776800, 0.448824, 0.305743, -0.140393, -0.249288,
		0.322741, 0.349616, 0.241338, -0.078556, -0.166413,
		-0.064460, -0.063804, 0.052981, 0.083497, 0.008917,
		-0.081617, -0.026994, 0.252794, 0.092590, 0.016982,
		-0.089869, 0.109335, 0.183063, -0.069243, -0.279216,
		-0.037444, 0.297517, 0.247564, -0.250849, -0.268425,
		0.066434, 0.139451, 0.075455, -0.223359, -0.003610,
		0.169752, -0.063327, -0.473570, 0.110417, 0.510061,
		0.220262, -0.299419, -0.548756, -0.267007, 0.061289,
		0.001530, -0.497363, -0.255166, -0.093413, -0.076449,
		0.325816, -0.137894, 0.109492, 0.271105, 0.230293,
		0.304841, 0.445701, 0.416824, 0.152483, 0.084685,
		0.233111, 0.347782, 0.328849, 0.517797, 0.311413,
		-0.040735, -0.050265, -0.244297, -0.266650, -0.033217,
		-0.546173, -0.452645, -0.216500, -0.138875, -0.012616,
		0.143821, 0.286342, 0.022547, 0.147609, -0.005616,
		-0.139126, -0.306894, -0.422357, -0.137143, -0.321718,
		0.297141, -0.096897, -0.097542, -0.061985, -0.177128,
		0.244363, 0.393672, 0.598712, 0.734704, 0.588669,
		-0.312906, -0.341922, -0.315240, -0.153608, -0.295412,
		-0.320035, -0.444137, -0.564601, -0.465579, -0.513233,
		0.279508, 0.024919, -0.163094, 0.034199, -0.151091,
		0.156274, 0.468369, 0.642996, 0.533948, 0.089120,
		-0.446415, -0.234290, 0.164433, 0.527784, 0.395092,
		-0.560936, -0.777669, -0.623534, -0.706603, -0.294336,
		0.103880, -0.231309, -0.339767, -0.270853, -0.242710,
		0.357718, 0.188212, 0.301265, 0.239993, -0.025589,
		0.058941, -0.282653, -0.225493, -0.067277, 0.230852,
		-0.047957, -0.821320, -0.271937, 0.119923, 0.236841,
		-0.185413, -0.912540, -0.535216, -0.091298, 0.237582,
		-0.031615, -0.451135, -0.548501, -0.464902, 0.106201,
		0.149777, 0.147231, -0.290170, -0.388154, -0.265965,
		-0.055935, -0.044682, 0.103819, 0.064072, 0.067481,
		-0.182145, -0.111041, -0.274753, -0.722170, -0.614974,
		-0.151677, -0.265183, -0.495565, -0.380957, -0.305258,
		0.178407, 0.035964, 0.207804, 0.036299, -0.055362,
		0.069482, 0.168083, 0.294656, 0.237068, 0.081027,
		0.145786, -0.026038, -0.150722, 0.026156, -0.233122,
		-0.103108, 0.076467, 0.058877, -0.083398, -0.384212,
		0.074588, 0.043658, -0.025911, -0.656532, -0.545210,
		0.166672, -0.365667, -0.461349, -0.467770, -0.005797,
		0.099082, -0.559901, -0.293603, 0.028076, 0.178924,
		-0.270929, -0.198088, -0.002148, -0.129982, -0.111724,
		-0.373773, -0.521977, -0.318734, -0.231151, -0.142292,
		-0.648899, -0.769691, -0.382403, -0.041072, -0.027133,
		-0.370634, -0.301427, 0.164267, 0.342500, -0.048479,
		0.017699, 0.047591, 0.078504, 0.241625, -0.020173,
		0.399562, 0.370026, 0.212620, -0.095251, -0.164570,
		0.252414, 0.195116, 0.538502, 0.186386, 0.152148,
		0.247302, 0.362178, 0.481757, 0.164263, 0.071004,
		-0.115096, -0.204300, 0.107456, 0.177968, 0.184734,
		-0.244853, -0.340793, 0.055797, 0.200784, 0.134867,
		0.392384, 0.118055, 0.031500, 0.536400, 0.154198,
		0.353545, 0.523532, 0.366376, 0.582356, 0.166292,
		-0.684837, -0.252115, -0.149659, -0.340755, -0.373489,
		-0.539569, -0.574125, -0.357256, -0.239284, -0.455025,
		-0.260832, -0.138009, -0.047164, -0.179028, -0.373903,
		0.194295, 0.286137, 0.321176, 0.061533, 0.251660,
		0.586332, 0.179331, 0.150234, -0.274040, 0.289036,
		0.014253, -0.129291, -0.092739, -0.204820, 0.601658,
		-0.648461, -0.503257, -0.111937, 0.079285, 0.405631,
		-0.063052, 0.065622, -0.355658, -0.111002, 0.101843,
		-0.164749, -0.228834, -0.128405, -0.088608, -0.049697,
		-0.140875, -0.351472, -0.256582, 0.152662, 0.244932,
		-0.218623, -0.416032, -0.159803, 0.246909, 0.119904,
		-0.342227, -0.233658, 0.234424, 0.328954, 0.040900,
		-0.262111, 0.079249, 0.209158, 0.006110, -0.080725,
		0.255514, 0.515715, 0.380320, -0.304410, -0.373959,
		0.647156, 0.763938, 0.710795, 0.217799, 0.189833,
		0.777225, 0.799303, 0.455651, 0.143923, 0.345430,
		0.189645, 0.073193, -0.235437, -0.092380, -0.030748,
		-0.139227, -0.435507, -0.197738, -0.009019, -0.129556,
		-0.499078, -0.472612, -0.596109, -0.258847, -0.279496,
		0.107848, 0.332489, 0.457922, 0.325826, -0.002961,
		0.519172, 0.344259, 0.117290, -0.260732, -0.146488,
		-0.046475, -0.160031, -0.257148, -0.177398, 0.038442,
		0.262875, 0.700622, 0.530958, 0.374883, 0.532661,
		-0.141291, -0.237601, -0.323333, -0.239743, -0.284677,
		-0.530978, -0.929558, -1.049900, -0.999477, -0.666367,
		0.202100, 0.307151, 0.211372, 0.172388, 0.157937,
		0.397716, 0.476795, 0.412597, 0.318481, 0.101241,
		-0.323765, -0.326214, -0.423066, -0.207625, -0.033107,
		-0.535524, -0.774309, -1.049557, -0.975898, -0.563739,
		0.297024, -0.172777, -0.447284, -0.642131, -0.344175,
		0.543684, 0.893524, 0.812792, 0.397607, 0.125010,
		-0.130564, 0.116042, 0.033584, 0.020000, -0.162017,
		-0.284500, -0.351778, -0.290319, -0.154905, -0.193626,
		0.384905, 0.466538, -0.193947, -0.401843, -0.388717,
		0.945422, 0.411297, -0.311976, -0.460391, -0.289595,
		0.947224, 0.332837, 0.112212, -0.099169, -0.450798,
		0.308603, 0.309052, 0.506450, -0.013431, -0.384370,
		-0.344433, -0.101783, 0.173644, 0.015688, -0.094547,
		0.067962, -0.206205, -0.158299, -0.000307, 0.150293,
		-0.022550, 0.412609, 0.722907, 0.962577, 0.748473,
		-0.044346, 0.359142, 0.393740, 0.244763, 0.230524,
		-0.393249, -0.205261, -0.314204, -0.106646, -0.038080,
		-0.087557, -0.447321, -0.453724, -0.317704, 0.098521,
		-0.178205, -0.238036, -0.279981, -0.133461, -0.261893,
		-0.331330, -0.314254, -0.082220, 0.459682, -0.260503,
		-0.288147, -0.163298, 0.725666, 0.594659, -0.467572,
		0.028806, 0.686926, 0.561492, -0.112659, -0.588290,
		0.397004, 0.430942, -0.113661, -0.270931, -0.299141,
		0.071048, -0.112748, -0.004422, 0.170678, 0.292580,
		0.527893, 0.302665, 0.221265, 0.176552, 0.278025,
		0.650423, 0.083779, -0.142332, -0.304154, -0.112932,
		0.123365, -0.425259, -0.646853, -0.520366, 0.035093,
		-0.158624, -0.604362, -0.809981, -0.199391, 0.360742,
		-0.822251, -0.440287, -0.060287, -0.190437, 0.289946,
		-0.280055, -0.564175, -0.416233, -0.480670, -0.237792,
		-0.177543, -0.782667, -0.661906, -0.572635, -0.544291,
		0.255740, -0.219552, -0.651522, -0.608628, -0.298723,
		0.456589, -0.017374, -0.365171, -0.343824, -0.268242,
		-0.773163, -0.625623, -0.879232, -0.858011, -0.333443,
		-0.963502, -0.866788, -0.725473, -0.409300, 0.076288,
		0.331396, 0.408553, 0.380926, 0.416441, 0.057938,
		0.348565, 0.302658, 0.139737, 0.296684, -0.263759,
		-0.258414, -0.246350, -0.251986, 0.167115, -0.015108,
		-0.438391, -0.376586, -0.139115, 0.092284, -0.672205,
		-0.360182, -0.012091, 0.430983, -0.091635, -0.804805,
		0.588041, 0.370111, 0.486814, -0.371324, -0.562972,
		0.960892, 0.609360, 0.217190, -0.432135, -0.278038,
		0.142088, 0.318450, 0.200869, -0.159887, 0.093915,
		0.147551, -0.035499, -0.094672, -0.153018, -0.127777,
		0.023426, 0.067213, -0.166661, -0.381251, -0.204158,
		0.075556, 0.036800, -0.298212, -0.269751, -0.073313,
		0.074302, -0.053427, -0.308966, -0.112930, 0.158527,
		-0.091415, -0.354769, -0.405960, 0.176570, 0.180790,
		-0.224336, -0.287945, 0.077143, -0.080860, -0.389753,
		-0.320265, 0.042432, 0.958143, 0.517323, -0.523496,
		-0.140051, 0.523930, 0.980231, 0.519959, 0.189236,
		-0.147439, 0.944203, 0.503626, -0.006283, -0.014938,
		-0.378402, 0.177706, -0.094066, -0.201222, -0.117057,
		-0.217102, 0.099150, -0.129553, -0.526191, -0.241567,
		-0.609305, -0.623689, -0.458118, -0.418158, -0.179530,
		0.381060, 0.409597, 0.729914, 0.534629, 0.388457,
		0.375686, 0.194147, 0.331368, -0.057696, -0.139154,
		-0.207211, -0.445226, -0.205869, -0.289232, -0.072949,
		-0.479174, -0.053836, 0.149229, 0.468042, 0.510385,
		-0.564584, -0.239621, -0.446751, -0.313971, -0.298738,
		-0.562804, -0.554880, -0.657253, -0.711914, -0.444672,
		0.118006, 0.238348, 0.228493, 0.457031, 0.477582,
		0.056396, 0.466149, 0.638060, 0.548508, 0.513552,
		-0.472981, -0.516204, -0.302599, 0.019766, 0.296191,
		-0.263488, -0.484006, -0.927252, -0.956293, -0.762780,
		0.550565, 0.537119, 0.215949, -0.153552, -0.123163,
		0.243837, 0.610975, 0.777690, 0.714178, 0.598678,
		-0.106857, 0.324968, 0.105690, 0.130935, 0.097765,
		-0.411278, -0.117460, 0.373802, 0.429013, 0.154451,
		-0.579233, 0.231051, 0.456844, -0.137187, -0.369641,
		-0.399820, 0.402477, 0.070515, -0.145750, -0.299648,
		-0.196062, 0.279437, 0.308809, 0.278166, -0.159418,
		-0.438546, 0.194305, 0.528461, 0.469804, -0.017704,
		-0.353100, -0.410868, -0.674388, -0.578263, -0.610558,
		-0.037086, -0.295314, -0.369838, -0.184398, -0.144167,
		0.054997, -0.050154, 0.327242, 0.891981, 0.734958,
		-0.137798, 0.107745, 0.336114, 0.182686, 0.223901,
		-0.225430, -0.069457, -0.059429, -0.078964, 0.150252,
		-0.271619, -0.325929, 0.049731, 0.025965, 0.121858,
		-0.108040, -0.107321, -0.324185, -0.226779, 0.150350,
		0.108854, -0.411207, -0.592588, 0.049427, 0.642637,
		-0.466157, -0.477694, 0.128724, 0.920074, 0.307421,
		-0.517135, 0.173268, 0.701829, 0.135862, -0.384665,
		-0.405678, -0.358826, -0.588516, -0.623901, -0.428360,
		-0.334704, 0.015708, 0.083341, 0.129765, -0.155611,
		-0.046669, 0.594405, 0.681036, 0.158183, -0.138103,
		0.383543, 0.867162, 0.209710, -0.433123, -0.536712,
		0.231100, 0.338811, -0.343361, -0.580417, -0.402968,
		0.077029, -0.452016, -0.123327, 0.421517, 0.525444,
		-0.594518, -0.333521, -0.222109, -0.189523, -0.098304,
		-0.567951, -0.351884, -0.698972, -0.547441, -0.402320,
		-0.165611, -0.147708, -0.481467, -0.402904, -0.242660,
		0.050309, 0.152106, -0.184022, -0.498076, -0.318138,
		-0.227055, -0.090497, 0.007741, -0.255291, -0.212613,
		-0.757580, -0.630821, -0.890760, -1.085358, -0.376626,
		-0.054483, -0.612104, -0.667266, -0.351147, 0.078168,
		0.818318, 0.250533, 0.295786, 0.423808, 0.601511,
		0.611296, 0.537476, 0.137811, 0.291405, 0.617635,
		0.185429, -0.006227, -0.141692, -0.346788, -0.077488,
		-0.384813, -0.471539, -0.078930, 0.342998, 0.033627,
		-1.029585, -0.398170, 0.127840, 0.619425, -0.342579,
		-0.048051, 0.482635, 0.436646, 0.360870, -0.525326,
		0.386058, 0.381457, 0.275480, 0.176736, -0.207171,
		0.063322, 0.316015, 0.147435, 0.158645, 0.012116,
		-0.064097, 0.299807, 0.317986, 0.133979, -0.100609,
		0.091253, 0.272673, 0.169823, -0.142179, -0.187483,
		0.323798, 0.286677, -0.013288, -0.169479, -0.052579,
		0.311701, 0.117893, -0.282801, -0.194135, 0.097689,
		-0.216575, -0.641541, -0.178086, 0.285187, 0.520832,
		-0.656747, -0.688357, -0.806969, -0.493464, -0.300415,
		-0.696097, -0.646387, -0.697505, -0.226880, -0.252661,
		-0.201330, -0.250650, 0.034406, 0.074481, 0.062470,
		0.118487, 0.356273, 0.337188, 0.209674, 0.200990,
		0.352293, 0.367948, 0.544244, 0.258264, 0.334605,
		0.002098, -0.227844, -0.168724, -0.214567, 0.298907,
		-0.605059, -0.338330, -0.067734, 0.079122, 0.228258,
		0.177277, 0.133248, 0.006099, 0.149177, 0.042245,
		-0.113426, -0.449098, -0.531561, -0.525371, -0.375632,
		0.226533, 0.161600, 0.146376, 0.185532, 0.232894,
		0.397874, 0.507536, 0.740939, 0.635122, 0.511755,
		-0.194335, -0.216266, -0.334916, -0.282335, -0.107451,
		-0.391557, -0.661348, -0.594905, -0.534264, -0.197679,
		0.385454, 0.113484, 0.094403, 0.094030, -0.236979,
		0.236248, 0.627945, 0.804602, 0.621433, 0.526859,
		-0.474102, -0.129409, 0.256564, 0.510848, 0.287466,
		-0.687074, -0.981701, -0.834787, -0.590334, -0.164967,
		-0.032328, -0.202351, -0.273412, -0.229191, -0.086018,
		0.138862, 0.304891, 0.238001, -0.055267, -0.149477,
		-0.470567, -0.645210, 0.067756, 0.138748, 0.229581,
		-0.730688, -0.696340, 0.140818, 0.084262, 0.084893,
		-0.848412, -0.594310, -0.216531, 0.051844, 0.048535,
		-0.441276, -0.447122, -0.459195, -0.018523, 0.231088,
		0.262586, 0.050825, -0.341839, -0.143574, -0.030886,
		-0.035239, 0.166739, 0.012427, 0.016055, 0.065379,
		-0.134309, -0.363731, -0.618268, -0.723406, -0.753811,
		-0.025636, -0.452404, -0.445386, -0.229425, -0.387757,
		0.111805, 0.264435, 0.313390, 0.088249, -0.120301,
		0.168255, 0.213542, 0.384448, 0.218875, -0.142506,
		0.058426, -0.001829, 0.173800, -0.051303, 0.124270,
		0.090256, 0.204292, -0.090676, -0.500205, 0.076390,
		0.216150, 0.118324, -0.621248, -0.594784, 0.189566,
		-0.116640, -0.467301, -0.582041, -0.206904, 0.207159,
		-0.314913, -0.457770, -0.210744, -0.016054, 0.282608,
		0.131056, 0.319715, 0.116255, -0.203973, -0.281736,
		-0.317020, -0.305767, -0.385530, -0.169494, -0.170628,
		-0.762793, -0.019289, 0.112443, 0.193106, -0.025720,
		-0.348367, 0.480227, 0.434550, 0.335605, -0.236256,
		0.127461, 0.524957, 0.584503, 0.204690, -0.394517,
		0.914661, 0.604765, 0.280543, 0.026292, -0.337421,
		0.497233, 0.785841, 0.716791, 0.518119, 0.372266,
		0.510851, 0.942383, 0.839132, 0.351142, 0.335319,
		0.048360, 0.410023, 0.382641, 0.581082, 0.451436,
		-0.403809, 0.039802, 0.358515, 0.313359, 0.239312,
		0.879181, 0.427862, 0.631134, 0.743434, 0.368538,
		0.571963, 0.743526, 0.633451, 0.537697, 0.006929,
		-0.098436, -0.265648, -0.274345, -0.197714, -0.301926,
		-0.281624, -0.481997, -0.337213, -0.363321, -0.061779,
		0.119144, 0.065110, 0.032083, -0.209839, -0.198171,
		0.258566, 0.214389, 0.100152, 0.107462, 0.507061,
		0.197461, 0.040849, -0.451569, -0.046998, 0.648495,
		-0.497865, -0.506006, -0.447540, -0.002541, 0.435296,
		-0.916948, -0.484314, -0.302721, 0.219979, 0.262421,
		-0.314638, -0.412128, -0.498430, -0.052334, -0.038068,
		0.145991, 0.094450, 0.022096, -0.196232, -0.076299,
		0.013122, 0.084668, 0.065353, -0.205706, -0.118072,
		0.153198, 0.196469, -0.095688, -0.336225, 0.120734,
		0.249201, -0.016696, -0.255097, -0.243805, 0.306086,
		0.036232, -0.308256, -0.297099, 0.044434, 0.114968,
		-0.495148, -0.578973, -0.384193, -0.262372, -0.449632,
		-0.924738, -0.741987, -0.531848, -0.130604, -0.971760,
		-0.825974, -0.210887, 0.255201, 0.166108, -0.610057,
		-0.270961, 0.402799, 0.358173, -0.044227, -0.022338,
		-0.033922, 0.363265, -0.004877, -0.286623, -0.136411,
		0.283760, 0.213482, 0.196006, -0.358811, 0.019410,
		-0.572019, -0.586274, -0.543353, -0.238972, -0.131037,
		0.041023, 0.206332, 0.464284, 0.426374, 0.306103,
		0.520755, 0.399422, 0.372043, 0.108116, -0.200809,
		-0.289166, -0.572681, -0.446425, -0.623280, -0.391621,
		-0.103190, 0.399755, 0.650606, 0.757872, 0.722299,
		0.148442, 0.561343, 0.620033, 0.558175, 0.222679,
		-0.763892, -0.843342, -0.853309, -0.701674, -0.407666,
		-0.259474, 0.003317, -0.132426, -0.111010, 0.077110,
		0.354933, 0.566641, 0.574275, 0.315222, 0.111018,
		-0.051331, 0.485841, 0.592937, 0.585655, 0.423556,
		-0.545440, -0.515645, -0.480251, -0.321727, -0.577403,
		-0.183231, -0.711998, -0.821749, -0.689563, -0.484161,
		0.417631, 0.334554, 0.210423, 0.256393, 0.041505,
		0.145510, 0.339489, 0.404425, 0.166301, 0.009716,
		-0.738510, -0.011933, 0.485463, 0.569619, 0.307895,
		-1.128620, -0.058559, 0.028868, -0.000426, -0.108926,
		-1.029838, -0.100979, -0.598436, -0.165778, 0.044435,
		-0.578162, -0.175858, -0.420963, -0.084353, 0.298237,
		-0.146642, 0.162884, -0.013204, -0.023849, -0.180398,
		-0.265330, -0.174198, -0.629185, -0.622056, -0.797305,
		-0.204580, -0.630829, -1.013725, -0.726490, -0.616663,
		-0.154296, -0.329162, -0.023248, 0.376994, 0.208000,
		0.146999, 0.276869, 0.217341, 0.069987, 0.065081,
		-0.015611, 0.218566, 0.165512, -0.038419, -0.236410,
		-0.152809, -0.166261, -0.313719, -0.381336, 0.028063,
		0.053300, -0.200145, -0.610097, -0.521744, 0.253608,
		0.095420, -0.368370, -0.653340, 0.060379, 0.770142,
		-0.248580, -0.501372, 0.101801, 0.710861, 0.672348,
		-0.538076, -0.012318, 0.454504, 0.467835, 0.078542,
		-0.603671, -0.454673, -0.552590, -0.887754, -0.652432,
		-0.636265, -0.109311, -0.075400, 0.018590, 0.011514,
		-0.237166, 0.653245, 0.795652, 0.503736, 0.072396,
		0.356415, 1.059901, 0.779389, 0.296942, -0.211254,
		0.215751, 0.351481, 0.103373, -0.419574, -0.344608,
		0.388455, 0.111868, 0.417372, 0.757197, 0.594546,
		0.227231, 0.613231, 0.665006, 0.791586, 0.653563,
		0.535171, 0.961757, 0.502807, 0.507943, 0.387295,
		0.004781, 0.498058, 0.421114, 0.512348, 0.319265,
		0.032761, 0.515429, 0.418120, 0.281424, 0.446487,
		0.685721, 0.576611, 0.749748, 0.481672, -0.032582,
		0.267090, 0.275514, 0.092725, -0.429055, -0.083713,
		-0.574542, -0.772968, -0.663407, -0.534614, 0.299469,
		0.407776, 0.328381, 0.326508, 0.079931, 0.430106,
		0.663388, 0.654649, 0.187859, 0.061753, 0.192981,
		0.328818, 0.060525, -0.102355, -0.012318, 0.162328,
		-0.307040, -0.462668, -0.269814, 0.265441, 0.405983,
		-1.189957, -0.741422, -0.169127, 0.654640, -0.213504,
		-0.914342, -0.164921, 0.039940, 0.282623, -0.560301,
		0.370020, 0.267638, 0.090584, 0.046877, -0.372892,
};
float b2[12] = {
		-0.032624, 0.011199, -0.002531, -0.117784, -0.129902,
		-0.181172, -0.062162, -0.151470, -0.114412, 0.035575,
		-0.092101, -0.059978,
};
float K[10][192] = {
		-0.045696, -0.040852, 0.226016, 0.033718, -0.000332,
		0.153322, -0.158035, -0.036359, -0.203538, -0.150837,
		-0.078663, -0.255979, -0.112720, -0.028273, 0.228635,
		-0.232773, -0.090266, 0.320186, 0.529030, 0.808504,
		-0.086923, -0.403024, -1.038321, 0.242988, 0.908004,
		-0.387814, -0.232316, -0.071037, 0.576310, -0.040488,
		0.058306, -0.300647, -0.280328, -0.389249, -0.274140,
		0.208751, -0.510884, -0.163310, -0.562715, 0.010925,
		-0.517869, -0.036003, 0.184097, 0.234187, -0.497061,
		-0.335402, 0.162503, 0.198677, -0.589061, -0.527689,
		-0.668700, -0.444366, -0.175450, -0.423458, -0.378697,
		-0.484581, -0.263367, -0.361964, -0.782880, -0.026909,
		-0.770960, -0.570341, -0.230071, 0.152336, -0.471808,
		-0.960533, -0.841179, 0.349332, 0.033133, -0.538838,
		-0.869209, -0.030947, 0.117543, 0.198105, -0.238463,
		0.181901, -0.367822, 0.064884, 0.085573, -0.081744,
		-0.172713, -0.232118, 0.279441, 0.128342, -0.074151,
		-0.420917, -0.207120, -0.510925, -0.074199, 0.785488,
		-0.400045, -1.150164, 0.543878, 1.239640, 0.618366,
		-0.054050, -0.155648, 0.136444, -0.086113, -0.144045,
		0.259729, -0.011075, -0.536397, 0.070703, 0.476963,
		-0.836993, -0.813328, 0.126316, 0.365637, -0.386079,
		-0.282884, -0.202806, -0.294030, 0.460015, 0.235425,
		-0.703692, 0.162153, 0.123736, -0.017832, -0.357910,
		-0.125815, 0.087755, -0.672998, -0.054670, -0.308427,
		-0.802593, 0.052334, 0.094643, 0.238045, 0.511827,
		0.290651, -0.066517, 0.198083, 0.027636, -1.071180,
		-0.608062, -0.041485, -0.823056, -0.445644, 0.668985,
		-0.564925, -0.741264, 0.608644, 0.490929, 0.127212,
		0.058525, -0.072643, -0.961309, 0.075005, 0.241510,
		-0.110856, -0.569035, -0.487027, -0.300007, 0.341477,
		0.604362, -0.667172, -0.435947, 0.355751, 0.573479,
		-0.640709, -1.002834, -1.076195, -0.916828, -0.084587,
		0.412767, -0.178519, -0.058810, -0.343578, -0.107540,
		-0.744823, 0.399681, -1.153838, -1.052211, 0.180899,
		0.782580, -0.432299, -0.005181, 0.342020, 0.136258,
		-0.164350, 0.467504, -0.613103, -0.268091, -0.030890,
		-0.208401, -0.301962, -0.241252, -0.283488, 0.392337,
		0.633957, 0.122399,
		0.107221, -0.262914, -0.066545, 0.137169, 0.169264,
		0.172221, 0.156540, 0.207143, 0.471559, 0.121015,
		0.208533, 0.246137, 0.249519, 0.125084, 0.103527,
		-0.242595, -0.678840, -0.994064, -0.764878, -0.663839,
		-1.048691, 0.393820, 0.444204, -0.857209, -1.122602,
		-0.248959, -1.078387, -0.157325, -0.803008, -0.812762,
		-0.306475, -0.086635, -0.064325, -0.050113, -0.209471,
		0.138793, -0.328797, -0.247513, 0.177244, 0.298875,
		-0.838673, -0.883819, -0.386222, -0.029427, -0.034902,
		-0.401552, 0.234093, 0.153428, -0.451355, -0.010726,
		-0.221084, -0.827326, -0.721677, 0.019025, -0.385475,
		0.130733, -0.784167, -0.574547, -0.305456, -0.184340,
		-0.657989, -0.637382, -0.026995, -0.655856, -0.267199,
		-0.162440, -0.356889, -0.964713, -0.516787, -0.105911,
		0.006271, 0.667840, -1.258187, -1.068769, -0.280153,
		-0.274696, -0.819905, -0.432644, -0.170973, -0.507550,
		0.242284, -0.169335, -0.056003, -0.326919, 1.053839,
		0.703682, 0.127635, -0.110910, 0.725079, 0.103234,
		-0.076429, 0.673418, -0.159767, -0.139987, -0.077997,
		-0.213184, -0.353284, -0.026490, -0.179815, 0.084249,
		-0.008634, -0.233619, 0.104460, 0.117870, 0.058058,
		0.738544, 0.138161, -0.083029, -0.048593, -0.361542,
		-0.556388, 0.209508, -0.453875, -0.028328, 0.209684,
		0.065449, 0.107852, 0.171649, -0.080482, 0.095714,
		0.557015, 0.059687, 0.006533, -0.290957, 0.387056,
		-0.090576, -0.310068, -0.266515, 0.189196, -0.686047,
		-0.414369, -0.148551, 0.013540, 1.244044, 1.273706,
		1.174069, -0.131778, 0.456797, -0.554225, -0.476282,
		0.009248, 0.218298, 0.215376, -0.203888, 0.530717,
		0.291521, 0.548590, 0.407876, -0.262040, 0.254629,
		0.465906, 0.051491, 1.010949, 0.051412, -0.367257,
		0.053347, 0.153542, 0.025718, 0.540543, 0.338206,
		0.740950, 0.843169, 0.764737, -0.076088, -1.056051,
		-0.772904, -0.817830, 0.301716, -0.412694, -0.048245,
		1.294904, -0.002731, -0.043294, -0.267248, -0.365586,
		-1.175455, -0.825995, -0.089433, -0.899080, -0.792364,
		0.227769, -0.090341, 0.403180, 0.154836, -0.090973,
		-0.556638, -0.258205, -0.785486, 0.466327, -0.870091,
		-0.420870, -0.224336,
		-0.022328, -0.336299, 0.014464, 0.190551, -0.235012,
		-0.290111, 0.010680, 0.367594, -0.395358, -0.316832,
		0.250377, -0.154913, -0.025908, 0.039043, -0.075127,
		-0.297468, -0.699290, 0.091230, -0.330061, 0.257840,
		-0.337257, -0.088620, 0.713781, -0.350467, 0.290921,
		-0.461570, -0.377790, 0.397221, -0.653306, -0.844344,
		-0.615011, 1.249694, 0.235229, 0.557684, 0.241527,
		0.045197, -0.025927, -0.113729, -0.267657, 0.664259,
		-0.424498, -0.519013, -0.000613, 0.381806, -0.332294,
		-0.082476, 0.359641, 0.013633, 0.701830, 1.600252,
		-0.071993, -0.947433, 0.392327, 1.148023, -0.346976,
		-0.187042, 0.105756, -0.315275, -0.246052, -0.028442,
		-0.425018, -0.292800, 0.733218, 0.872028, 0.425215,
		1.159218, -1.413999, 0.034819, 1.007336, -0.032035,
		-0.478126, 0.345785, 0.480034, -0.305218, 0.160053,
		0.671698, -0.502931, -0.608765, 0.743649, 1.176343,
		-0.156873, -0.390713, -0.505483, -0.132042, -0.467721,
		-0.437929, -0.437271, -0.685764, 0.521735, 0.207346,
		-0.999995, -0.369010, 0.455127, -0.411783, -1.499298,
		0.328796, -0.286040, -0.038698, 0.922288, -0.024366,
		0.058597, 0.348413, 0.584912, -0.130623, -0.005710,
		-0.608043, -0.241924, 0.419501, -0.806153, -0.759377,
		0.254211, 0.394282, -0.056955, -0.311282, 0.429377,
		1.035594, -0.342792, -0.262445, 0.705363, 0.890041,
		-0.648106, -0.677866, 0.072951, 0.095660, -0.755320,
		-0.477252, 0.935002, -0.778865, -0.445097, 0.178499,
		1.430162, 0.488007, -0.519724, -0.392985, -0.005563,
		-0.133823, -1.022699, -0.426013, 0.081248, -0.347019,
		-0.758558, -0.682700, 0.689245, 1.238893, 0.065580,
		0.513296, 0.055863, -0.673109, -0.239682, -0.106380,
		-0.642602, -0.727020, -0.473795, 0.352645, 0.494273,
		-0.191472, -0.476767, 0.179183, -0.116895, 0.065827,
		0.968832, 0.982972, -0.366039, -0.450730, 0.604552,
		0.032838, -0.172242, 0.813781, -0.655965, -0.205822,
		0.099507, -0.417103, -1.163743, 0.376086, 0.412112,
		-0.558213, -0.110474, -0.426798, 0.156514, -0.075873,
		0.040749, -0.569058, -0.920772, 0.487690, 0.019334,
		-0.554274, -0.222104, -0.065697, -0.196953, 0.127207,
		-0.003096, 0.458506,
		-0.260022, -0.255600, -0.375233, -0.456211, -0.410933,
		-0.164947, -0.098636, -0.391274, 0.180228, 0.528759,
		-0.057359, -0.163907, 0.393486, -0.054423, -0.021856,
		-0.024666, 0.212057, -0.807545, -0.385971, 0.059132,
		0.343457, 0.318740, -0.767164, -0.494404, -0.549339,
		-0.026762, 0.351529, 0.134103, -0.431221, 0.220790,
		0.489281, -0.461949, 0.795520, 0.082159, 0.467800,
		-0.184775, 0.525080, 0.116590, -0.015077, -0.393031,
		-0.195308, -0.076538, -0.210785, -0.128715, -0.399112,
		-0.092538, -0.365243, -0.230385, 0.494102, 1.024965,
		0.375500, 1.133289, 0.552682, 0.570478, 0.810103,
		0.748572, -0.341874, 0.031469, 0.056498, 0.272459,
		-0.892900, 0.033805, -0.041410, -0.057577, 0.721957,
		0.843983, 1.190632, -0.042260, 1.229826, 0.657126,
		1.470444, -0.215672, -0.050904, 0.267468, 0.556045,
		0.221801, -1.213067, 0.090758, -0.354715, -0.653671,
		-0.964793, -0.716416, -1.518753, -1.229032, 0.442843,
		-0.189982, 0.324982, -0.959555, 1.366641, -0.126060,
		0.069752, -0.602292, 0.323912, -0.431576, 0.584522,
		-0.294309, -0.019705, -0.847082, -0.486866, 0.656345,
		-0.017265, -0.436482, -0.498731, 0.508987, 0.076213,
		0.084369, 0.049282, 0.426809, 0.157616, 0.014924,
		0.050382, 0.084096, -0.772863, -0.359201, -0.771024,
		-1.099049, -1.155953, 0.644435, 0.272815, -0.857603,
		-0.385280, 0.742445, -0.247555, -0.409133, -0.028143,
		0.987522, -0.528883, 0.005226, -0.895226, -0.685025,
		-0.339513, 0.182894, -0.819919, 0.565752, -0.784708,
		0.242527, -0.499583, 0.318706, -0.638927, 0.125412,
		-0.831504, 0.081827, -0.708963, -0.678901, -0.712199,
		0.121029, 0.703640, -0.321583, -0.469748, 0.063804,
		-0.295375, 0.188440, -0.655038, -0.437929, -0.324553,
		-0.439288, -1.048327, -0.990232, -0.423314, -0.053171,
		0.979887, 0.515507, 0.285693, 0.101646, -0.096146,
		-0.074527, 0.483635, 0.148164, -0.690198, -0.215879,
		-0.528903, -0.074521, -0.412384, 0.345175, -0.848258,
		0.494334, -0.057221, -0.908757, -0.076090, -0.798956,
		0.049414, 0.416157, 1.147612, -0.264137, 0.596025,
		-0.148775, -0.348767, -0.287931, 0.025249, -0.004744,
		-0.230933, 0.142933,
		-0.269321, 0.066480, -0.146327, 0.135527, -0.111938,
		0.135224, -0.017931, -0.239194, -0.012803, -0.153796,
		-0.110130, -0.102580, 0.235106, 0.314437, -0.092421,
		-0.058013, 0.580306, 0.164622, -0.039017, -0.563879,
		-0.039889, -0.503840, 0.005167, -0.338786, 0.426353,
		0.359918, 0.192025, -0.292744, 0.611236, -0.569326,
		0.332492, -0.093602, -0.562905, -0.081850, -0.374281,
		-0.426709, -1.390428, 0.249000, 0.133777, -0.197318,
		-1.048500, -0.330057, 0.782858, -0.655555, -0.472516,
		-0.552423, 0.460259, -0.337351, -0.668307, -0.438576,
		0.143517, 0.194802, -0.936010, -0.657438, 0.494602,
		0.215904, -1.438578, -0.358439, 0.223816, 0.311742,
		-1.532332, -0.755206, 0.796808, -0.391055, -0.406052,
		-0.271015, 0.108038, -0.205387, -1.397665, -0.398600,
		0.790116, 0.090729, -1.299945, -0.762557, 0.554527,
		-0.005120, -1.210715, -0.874655, 0.819863, -0.499786,
		0.598518, 0.142147, -0.449877, 0.434439, 0.868323,
		-0.500788, -0.073252, 0.014888, 0.133740, -0.598660,
		-0.681128, 0.643450, 0.469667, 0.173416, -0.074064,
		0.004713, -0.168240, 0.017645, 1.309598, -0.565949,
		-1.025183, 0.022437, 0.198471, -0.601673, -1.404948,
		-0.199768, 0.583985, -0.594713, -0.547967, -1.149714,
		0.700798, -0.070517, -0.010586, -0.179777, 0.418290,
		-0.118762, -0.348742, -0.130301, -0.244173, -0.599391,
		0.758075, -0.240460, -0.510751, -0.192905, 0.941554,
		0.385673, 0.245171, -0.293691, -0.126774, 0.488629,
		-0.014951, -0.555823, -1.218506, -0.337809, -0.744078,
		-0.141842, -0.331151, 0.899723, 0.371220, -0.442826,
		0.329955, 0.058251, -0.243666, -0.254221, 0.259450,
		0.029243, -0.748524, 0.244879, 1.099742, -0.097414,
		-0.555278, -0.346396, 0.479733, -0.396354, -0.213738,
		-0.927926, 0.948603, 0.652230, -0.674437, -0.394550,
		-0.970084, -0.644713, 0.486713, -0.275175, -0.595773,
		0.175156, -0.211056, 0.017442, -1.410890, -0.707179,
		0.505426, -0.154070, -0.509180, -0.417268, 0.397867,
		-0.754402, -0.056138, -0.267495, 0.182417, -0.243382,
		0.108280, -0.280190, -0.720357, 0.827495, 1.529676,
		-0.139344, 0.318477, -0.054880, 2.054375, 0.711161,
		-0.240417, -0.285792,
		0.320462, -0.044719, -0.297831, -0.372680, 0.044594,
		-0.114478, -0.368821, -0.238338, -0.206355, -0.404375,
		-0.303257, 0.287837, -0.181601, -0.404807, -0.295119,
		0.134199, -0.613383, -0.610234, 0.211044, 0.147973,
		-0.435383, 0.476805, 0.128196, -0.507529, 0.006493,
		0.413341, -0.356777, -0.564199, 0.215924, 0.377451,
		-0.341278, -0.586682, -0.345079, -0.299126, 0.118156,
		-0.339132, -0.033307, 0.378629, -0.568254, -0.503565,
		0.534295, 0.238311, -0.193336, -0.537976, 1.136497,
		0.097097, 0.040061, -0.474033, -1.058667, -0.010022,
		0.814151, 0.751497, -0.402443, 0.330355, 0.297971,
		1.059621, 0.701337, 0.512355, 0.212458, 0.471693,
		1.328120, 0.949849, -0.093646, -0.538560, -0.570307,
		0.514039, 1.229771, 0.321703, -0.436967, 0.428652,
		0.728275, 0.234119, 0.565953, 1.096035, -0.188672,
		0.053179, 1.975507, 1.461691, -0.507122, -0.907497,
		0.996100, 0.348590, -0.397730, -1.145688, -0.789885,
		-0.007518, -0.091268, -1.299973, -1.934538, -0.476195,
		0.498516, -0.592445, -1.466178, -1.803252, 0.701012,
		-0.044067, -0.763942, -0.465930, 0.158279, 1.139079,
		-0.006738, 0.059760, 0.407733, 0.526384, -0.271404,
		0.059867, -0.214104, -0.092624, -0.335931, -0.265499,
		0.064502, -0.116261, -0.399596, 0.015481, -0.482467,
		-0.068732, 0.772081, -0.280121, -0.129460, -0.460304,
		-0.110428, -0.623447, -1.633504, 0.264828, 0.136770,
		-0.815274, -1.361792, -0.531623, 0.340610, -0.321853,
		-0.305773, 0.341904, 0.314320, -0.056970, -0.408522,
		0.605994, 0.627243, -0.479560, -1.155860, 0.017019,
		2.106789, -0.045735, -1.836901, -0.186862, -0.223630,
		-0.435514, 0.287711, -0.380087, -0.693171, -0.213757,
		0.272145, -0.596808, 0.011753, 0.139501, 0.379403,
		0.133974, 0.580587, 1.092162, -0.442664, -0.036044,
		-0.970079, -0.162161, 0.673143, 0.058357, 0.505884,
		-0.317112, -0.021627, 0.435814, 1.092858, 0.618609,
		-0.026997, 0.416475, 1.380039, 1.074543, -1.045093,
		-0.088241, -0.203129, -0.412321, -0.054285, -0.737289,
		-0.059629, 0.213561, 0.285206, -0.413200, -0.561933,
		-1.197483, -0.149872, -0.480896, 0.024497, -0.012857,
		-0.302769, -0.657416,
		0.142948, 0.037879, 0.172199, 0.119944, 0.387241,
		0.158885, -0.004023, 0.013378, 0.073566, 0.111232,
		-0.050968, -0.112304, -0.027401, -0.102356, -0.119308,
		0.051414, -0.187395, -0.056219, 0.331982, 0.453494,
		-0.519863, -0.281153, 0.463021, 0.697226, -1.273061,
		-0.037656, 0.264671, 0.544641, -1.006693, 0.229590,
		0.457867, -0.264134, -0.204420, -0.297702, -0.469479,
		0.119354, -0.217163, -0.157089, -0.470561, 0.283196,
		0.196644, -0.030293, -0.436299, 0.306956, -0.110192,
		-0.464166, -0.286347, 0.097598, -0.568494, -0.537601,
		-0.847569, -0.099022, -0.899347, -0.421400, -0.522721,
		-0.389576, -0.497034, 0.164349, -0.263513, -0.124892,
		0.751255, 0.478485, -0.344511, -0.122576, -0.918506,
		-1.012227, -0.063379, 0.581966, -1.247010, -0.922047,
		-0.974948, 0.278612, -0.719237, -0.404913, -0.117562,
		0.218476, 0.669323, 0.166982, -0.260983, 0.058622,
		0.030482, -0.320712, 0.342195, 0.314779, -0.540036,
		-0.668650, -0.294074, 0.161580, -1.174923, -0.891413,
		-0.122776, -0.284467, -0.759088, -0.282073, 0.503008,
		-0.266482, -0.049797, -0.363528, -0.602997, -0.761647,
		-0.739276, -0.226316, -0.352836, 0.352208, -0.672417,
		0.268378, 0.011326, 0.735456, -0.179424, 0.765274,
		0.037431, 0.091820, -0.114764, 0.238103, -0.351764,
		-0.443911, 0.489107, -0.114721, -0.165398, 0.064768,
		0.614721, 0.214757, -0.300629, -0.034117, 0.471181,
		-0.496522, -0.592732, 0.103482, -0.156591, 0.011518,
		0.155797, -0.112123, 0.033211, 0.284672, -0.212037,
		-0.226488, 0.079126, 0.423049, -0.223977, -0.054810,
		-0.178493, 0.814128, -0.385483, -0.333045, 0.405967,
		0.002287, -0.565103, -0.300393, 0.690404, 0.134273,
		-0.397557, -0.912579, 0.983325, 0.260475, -0.199833,
		-0.772402, 0.321544, -0.545264, -0.319546, -0.486651,
		-0.734232, -1.024864, -1.243344, -0.073478, -0.472830,
		-0.488268, -0.505263, -0.241226, 0.676027, -0.127408,
		-0.262738, 0.250205, 1.246816, -0.832066, -0.467673,
		0.587258, 0.096712, -0.474968, -0.124267, 0.652703,
		-0.273070, -0.296168, -0.117750, 0.152112, -0.328200,
		-0.736249, -0.664941, -0.090178, -0.428802, -1.555250,
		0.201255, -0.077587,
		-0.012234, -0.427065, -0.310562, 0.059156, -0.218763,
		0.016100, 0.627574, 0.356048, -0.297376, -0.034791,
		-0.265921, 0.297158, 0.123899, -0.134836, -0.133648,
		0.285973, 0.302015, -0.257854, -0.345811, -1.087230,
		-0.312119, -0.815259, -1.244569, -0.473419, -0.747867,
		0.241799, 0.083789, -0.887321, -0.605106, -0.265169,
		0.318271, -1.167602, 0.266231, -0.080380, 0.308814,
		0.050041, 0.275142, -0.459333, -0.548659, 0.055685,
		0.493484, -0.533968, 0.324741, -0.535858, -0.082802,
		-0.173949, 0.512411, -0.058272, 0.487202, 0.147007,
		0.335052, 0.010588, 0.486571, 0.208265, -1.135322,
		-0.390736, 0.532374, 0.881917, -0.588983, 0.130158,
		-0.028202, 0.091292, 0.519577, 0.273266, 0.920489,
		0.372340, 0.562135, -0.887868, 0.722399, 0.129493,
		-0.907188, -0.420781, 0.435528, 0.788807, -0.480842,
		-0.317114, -0.103243, 0.087490, 0.534246, -0.390972,
		-0.431972, -0.135851, -1.108440, 0.050740, -0.586887,
		-0.342665, 0.392063, 0.289413, -0.724734, 0.203765,
		0.149966, 0.625818, -0.277067, 0.018508, -0.104378,
		-0.366310, 0.189831, 0.583375, -0.236150, -1.201899,
		0.105846, 0.792425, -0.651442, -0.730886, 0.186051,
		-0.043598, -0.088401, -0.952741, 0.403254, -0.307521,
		0.410953, -0.775443, -0.449734, -0.547281, 0.451474,
		-0.229162, -0.630449, -0.284959, 0.339776, 0.184169,
		-0.313834, -0.347628, 0.412549, 0.156855, 0.188391,
		0.202885, -0.211035, 0.343156, 0.482223, -0.453743,
		1.060746, 0.017988, -0.026522, -0.097989, 1.178039,
		-0.127768, 0.940886, 0.099361, -0.392147, 0.028172,
		0.950871, 0.211489, -0.183081, -0.661406, -0.468660,
		-0.354971, 1.128795, 1.363619, -0.071439, -0.495868,
		0.032475, 0.306932, -0.013188, -1.119179, 0.685934,
		0.336689, 0.200740, -0.220951, -0.295021, 0.470131,
		0.235909, 0.487162, 0.299830, 0.708604, 0.322278,
		1.234548, -0.823044, -0.351250, -0.181029, -0.149997,
		-0.024803, 0.555375, -0.019871, -0.314349, 0.521447,
		0.535743, -0.639173, -0.329849, -0.546695, 0.157148,
		-1.155763, -0.031834, -0.837153, -0.340590, -0.424212,
		0.014764, 0.245108, -0.319261, -0.156406, -0.251916,
		-0.103275, -0.669283,
		0.110379, -0.308120, 0.155213, 0.207422, 0.005338,
		-0.290577, -0.222216, 0.063381, -0.186552, -0.349750,
		-0.028530, -0.192043, -0.063705, -0.021484, -0.216955,
		-0.195384, 0.134828, 0.710246, 0.080492, 0.898024,
		0.596674, 1.352038, 0.915612, 0.760638, 0.675887,
		0.757684, 1.144421, 0.469156, 1.012499, 0.585085,
		0.231742, 0.097512, -0.276239, 0.399055, -0.013065,
		-0.080143, 0.239171, 0.337481, 0.659298, -0.594627,
		-0.075655, 0.274506, -0.225591, -0.727487, -0.419957,
		0.710303, -0.603736, -0.207807, -0.545932, -0.490024,
		-0.536496, -1.088610, -0.223726, -0.494862, -0.233385,
		-0.951108, 0.184442, -0.190709, 0.051344, -0.830080,
		-0.097744, 0.146531, 0.060758, -0.340868, -0.794294,
		0.778616, -0.831791, -0.440487, -0.333954, 0.359894,
		-0.070708, -0.587551, -0.159861, -0.234992, 0.301450,
		-0.759580, -0.017823, 0.570244, 0.162733, -0.839899,
		-0.553897, -0.253871, -0.032986, -0.269688, -0.490789,
		0.145374, -0.479731, 0.610348, -0.189887, -1.447946,
		-0.220204, 0.247123, 0.280703, -0.175518, 0.344195,
		0.075095, -0.667275, -0.036744, -0.158530, -0.138908,
		-0.435978, -0.587118, 0.388212, -0.962948, -0.166394,
		0.084122, 0.438427, -0.393644, -0.465496, -0.551516,
		-0.380366, -0.073453, -0.100639, -0.065222, -0.451476,
		0.578326, 0.014269, -1.579212, 0.266759, 0.375622,
		-0.304782, -0.052175, 0.003639, -1.007067, -0.570411,
		0.300899, 0.591814, -0.570641, -0.160666, -1.622322,
		-0.519603, -0.049165, -0.399916, -0.372111, -0.328475,
		-0.616242, -0.821928, -0.432328, -0.256230, -1.166704,
		-0.554254, 0.696319, -0.238784, -0.865057, 0.352678,
		-1.086913, 0.290343, -0.432967, -0.392458, -1.109506,
		-1.286973, -2.254067, -1.213996, -0.332948, -0.858280,
		0.136053, -0.547419, -0.233774, 0.371739, 0.299924,
		-1.065183, 0.046410, -1.265569, -1.388830, -0.537489,
		-1.309580, -0.283936, -1.008016, -0.219023, -0.442237,
		0.481520, -1.347460, -0.603376, 0.343306, -0.789692,
		-0.138028, 0.418993, -0.001217, -0.122877, 0.913461,
		0.700961, 0.122838, 0.600925, 0.977049, 0.136657,
		0.339451, 0.421502, -0.581559, -0.094748, 0.549916,
		-0.083661, 0.059088,
		0.009128, 0.173730, -0.087444, -0.218033, 0.072950,
		0.265547, -0.675030, -0.183995, 0.140665, -0.044417,
		0.033435, 0.372450, -0.186530, -0.183178, 0.228590,
		-0.093172, -0.739505, 0.595809, 0.224257, -0.835080,
		1.335510, 0.138536, 0.023539, -0.387868, 1.179689,
		-0.772759, -0.820094, -1.702480, 0.169454, 0.080989,
		-1.494036, -0.654650, -0.266530, 0.113195, -0.180108,
		-0.329596, 0.625947, 0.546859, -0.311172, 0.269047,
		0.246369, 0.527751, -0.469844, 0.490624, -0.343198,
		0.246517, -0.175687, -0.498324, -0.672854, -0.975904,
		-0.304776, 1.187074, 0.185784, -0.313506, 1.300963,
		0.883165, 0.667139, -0.628064, 0.746910, 0.480319,
		0.418273, -0.855244, -1.087892, -0.350739, -1.744985,
		-0.609890, 0.154875, 0.380132, -0.431989, 0.901710,
		0.777766, 0.477617, 0.097955, -0.045489, -0.144354,
		0.004463, -0.050641, -0.974498, -1.515179, -0.467102,
		-0.763278, -0.717441, 0.074135, 0.184304, -1.130926,
		0.550224, -0.807430, -0.684495, -0.378721, 0.763248,
		0.186385, -0.344359, 0.056784, 0.377281, -0.213379,
		0.143583, -0.264423, -0.564148, -0.935392, -0.714995,
		0.657560, -0.112798, 0.016706, -0.055460, 0.924159,
		1.102496, -0.106626, -1.232587, 0.006142, 0.682661,
		-0.725652, -1.189852, 0.008202, 1.003229, -1.466363,
		-0.726064, 0.795333, 0.267416, -0.744838, -0.463273,
		-0.575793, 0.629946, -0.198423, 0.623059, -1.134136,
		-0.832940, 0.647886, -0.061478, 0.058541, 0.713455,
		-1.976792, -1.131700, 1.029139, 0.046376, -0.578965,
		-0.798351, -0.107675, -0.757487, 0.777444, -0.521912,
		-0.880184, -1.121143, -0.500820, -0.133847, 0.537720,
		-0.312941, -1.255797, 0.223952, -0.912764, 0.354912,
		-0.163316, 0.752559, -1.360533, -0.031539, -1.342404,
		-0.100167, -0.575708, -0.103498, -0.174584, 0.008129,
		-0.967929, -0.896223, 0.070405, 1.054719, 0.145145,
		-0.475065, 0.669877, 0.847667, 0.594036, -0.636884,
		-0.236923, 0.928134, -0.675709, -0.381305, 0.282659,
		-0.249622, -0.048482, 0.564739, 0.343032, -0.087078,
		-0.278767, 0.567115, 1.016822, 0.244850, -1.453514,
		-0.180897, 0.716241, -0.028841, -1.721827, -0.284177,
		0.368092, -0.497873,
};
float B[10] = {
		-0.093398, -0.030606, -0.380107, -0.387252, -0.210667,
		-0.282849, -0.224541, -0.274470, -0.139030, -0.333893,
};
